<?xml version="1.0"?>
<opencv_storage>
<stage8>
  <maxWeakCount>5</maxWeakCount>
  <stageThreshold>-1.7188316583633423e+00</stageThreshold>
  <weakClassifiers>
    <_>
      <internalNodes>
        0 -1 146784 6.5087333321571350e-02</internalNodes>
      <leafValues>
        -8.3834588527679443e-01 4.6341463923454285e-01</leafValues></_>
    <_>
      <internalNodes>
        0 -1 81122 -4.2778909206390381e-02</internalNodes>
      <leafValues>
        3.2696294784545898e-01 -7.0796692371368408e-01</leafValues></_>
    <_>
      <internalNodes>
        0 -1 51125 -4.8727948218584061e-02</internalNodes>
      <leafValues>
        3.5129126906394958e-01 -7.0223402976989746e-01</leafValues></_>
    <_>
      <internalNodes>
        0 -1 162102 -1.1395891306165140e-05</internalNodes>
      <leafValues>
        -9.0625160932540894e-01 2.9331308603286743e-01</leafValues></_>
    <_>
      <internalNodes>
        0 -1 162241 -5.5288626754190773e-05</internalNodes>
      <leafValues>
        -6.9561719894409180e-01 3.8244146108627319e-01</leafValues></_></weakClassifiers></stage8>
</opencv_storage>
